digraph Tree {
0 [label="X[1] <= 127.5000\ngini = 0.451968126945\nsamples = 684", shape="box"] ;
1 [label="X[7] <= 28.5000\ngini = 0.314440480909\nsamples = 435", shape="box"] ;
0 -> 1 ;
2 [label="X[5] <= 30.9500\ngini = 0.157316581564\nsamples = 244", shape="box"] ;
1 -> 2 ;
3 [label="X[6] <= 0.6720\ngini = 0.0142849748978\nsamples = 139", shape="box"] ;
2 -> 3 ;
4 [label="gini = 0.0000\nsamples = 121\nvalue = [ 121.    0.]", shape="box"] ;
3 -> 4 ;
5 [label="X[6] <= 0.6865\ngini = 0.104938271605\nsamples = 18", shape="box"] ;
3 -> 5 ;
6 [label="gini = 0.0000\nsamples = 1\nvalue = [ 0.  1.]", shape="box"] ;
5 -> 6 ;
7 [label="gini = 0.0000\nsamples = 17\nvalue = [ 17.   0.]", shape="box"] ;
5 -> 7 ;
8 [label="X[2] <= 37.0000\ngini = 0.308390022676\nsamples = 105", shape="box"] ;
2 -> 8 ;
9 [label="gini = 0.0000\nsamples = 2\nvalue = [ 0.  2.]", shape="box"] ;
8 -> 9 ;
10 [label="X[6] <= 0.9555\ngini = 0.288434348195\nsamples = 103", shape="box"] ;
8 -> 10 ;
11 [label="X[5] <= 45.4000\ngini = 0.2688\nsamples = 100", shape="box"] ;
10 -> 11 ;
12 [label="X[6] <= 0.5005\ngini = 0.246997555532\nsamples = 97", shape="box"] ;
11 -> 12 ;
13 [label="X[5] <= 31.1000\ngini = 0.152777777778\nsamples = 60", shape="box"] ;
12 -> 13 ;
14 [label="gini = 0.0000\nsamples = 1\nvalue = [ 0.  1.]", shape="box"] ;
13 -> 14 ;
15 [label="X[4] <= 36.5000\ngini = 0.126400459638\nsamples = 59", shape="box"] ;
13 -> 15 ;
16 [label="X[1] <= 111.5000\ngini = 0.32\nsamples = 20", shape="box"] ;
15 -> 16 ;
17 [label="X[2] <= 81.5000\ngini = 0.132653061224\nsamples = 14", shape="box"] ;
16 -> 17 ;
18 [label="gini = 0.0000\nsamples = 13\nvalue = [ 13.   0.]", shape="box"] ;
17 -> 18 ;
19 [label="gini = 0.0000\nsamples = 1\nvalue = [ 0.  1.]", shape="box"] ;
17 -> 19 ;
20 [label="X[7] <= 22.5000\ngini = 0.5\nsamples = 6", shape="box"] ;
16 -> 20 ;
21 [label="gini = 0.0000\nsamples = 2\nvalue = [ 2.  0.]", shape="box"] ;
20 -> 21 ;
22 [label="X[1] <= 123.0000\ngini = 0.375\nsamples = 4", shape="box"] ;
20 -> 22 ;
23 [label="gini = 0.0000\nsamples = 3\nvalue = [ 0.  3.]", shape="box"] ;
22 -> 23 ;
24 [label="gini = 0.0000\nsamples = 1\nvalue = [ 1.  0.]", shape="box"] ;
22 -> 24 ;
25 [label="gini = 0.0000\nsamples = 39\nvalue = [ 39.   0.]", shape="box"] ;
15 -> 25 ;
26 [label="X[6] <= 0.5440\ngini = 0.36815193572\nsamples = 37", shape="box"] ;
12 -> 26 ;
27 [label="X[2] <= 61.0000\ngini = 0.5\nsamples = 10", shape="box"] ;
26 -> 27 ;
28 [label="gini = 0.0000\nsamples = 3\nvalue = [ 3.  0.]", shape="box"] ;
27 -> 28 ;
29 [label="X[4] <= 149.5000\ngini = 0.408163265306\nsamples = 7", shape="box"] ;
27 -> 29 ;
30 [label="gini = 0.0000\nsamples = 5\nvalue = [ 0.  5.]", shape="box"] ;
29 -> 30 ;
31 [label="gini = 0.0000\nsamples = 2\nvalue = [ 2.  0.]", shape="box"] ;
29 -> 31 ;
32 [label="X[6] <= 0.6895\ngini = 0.252400548697\nsamples = 27", shape="box"] ;
26 -> 32 ;
33 [label="gini = 0.0000\nsamples = 14\nvalue = [ 14.   0.]", shape="box"] ;
32 -> 33 ;
34 [label="X[1] <= 118.5000\ngini = 0.426035502959\nsamples = 13", shape="box"] ;
32 -> 34 ;
35 [label="X[5] <= 32.7000\ngini = 0.493827160494\nsamples = 9", shape="box"] ;
34 -> 35 ;
36 [label="gini = 0.0000\nsamples = 4\nvalue = [ 4.  0.]", shape="box"] ;
35 -> 36 ;
37 [label="X[1] <= 92.5000\ngini = 0.32\nsamples = 5", shape="box"] ;
35 -> 37 ;
38 [label="gini = 0.0000\nsamples = 1\nvalue = [ 1.  0.]", shape="box"] ;
37 -> 38 ;
39 [label="gini = 0.0000\nsamples = 4\nvalue = [ 0.  4.]", shape="box"] ;
37 -> 39 ;
40 [label="gini = 0.0000\nsamples = 4\nvalue = [ 4.  0.]", shape="box"] ;
34 -> 40 ;
41 [label="X[7] <= 22.5000\ngini = 0.444444444444\nsamples = 3", shape="box"] ;
11 -> 41 ;
42 [label="gini = 0.0000\nsamples = 1\nvalue = [ 1.  0.]", shape="box"] ;
41 -> 42 ;
43 [label="gini = 0.0000\nsamples = 2\nvalue = [ 0.  2.]", shape="box"] ;
41 -> 43 ;
44 [label="X[7] <= 25.5000\ngini = 0.444444444444\nsamples = 3", shape="box"] ;
10 -> 44 ;
45 [label="gini = 0.0000\nsamples = 1\nvalue = [ 1.  0.]", shape="box"] ;
44 -> 45 ;
46 [label="gini = 0.0000\nsamples = 2\nvalue = [ 0.  2.]", shape="box"] ;
44 -> 46 ;
47 [label="X[5] <= 26.3500\ngini = 0.445601820126\nsamples = 191", shape="box"] ;
1 -> 47 ;
48 [label="X[5] <= 9.6500\ngini = 0.0555102040816\nsamples = 35", shape="box"] ;
47 -> 48 ;
49 [label="gini = 0.0000\nsamples = 1\nvalue = [ 0.  1.]", shape="box"] ;
48 -> 49 ;
50 [label="gini = 0.0000\nsamples = 34\nvalue = [ 34.   0.]", shape="box"] ;
48 -> 50 ;
51 [label="X[1] <= 99.5000\ngini = 0.48150887574\nsamples = 156", shape="box"] ;
47 -> 51 ;
52 [label="X[1] <= 28.5000\ngini = 0.290657439446\nsamples = 51", shape="box"] ;
51 -> 52 ;
53 [label="gini = 0.0000\nsamples = 2\nvalue = [ 0.  2.]", shape="box"] ;
52 -> 53 ;
54 [label="X[6] <= 0.7960\ngini = 0.244897959184\nsamples = 49", shape="box"] ;
52 -> 54 ;
55 [label="X[4] <= 153.0000\ngini = 0.132653061224\nsamples = 42", shape="box"] ;
54 -> 55 ;
56 [label="X[0] <= 11.5000\ngini = 0.095\nsamples = 40", shape="box"] ;
55 -> 56 ;
57 [label="X[6] <= 0.1775\ngini = 0.0525931336742\nsamples = 37", shape="box"] ;
56 -> 57 ;
58 [label="X[7] <= 32.0000\ngini = 0.32\nsamples = 5", shape="box"] ;
57 -> 58 ;
59 [label="gini = 0.0000\nsamples = 1\nvalue = [ 0.  1.]", shape="box"] ;
58 -> 59 ;
60 [label="gini = 0.0000\nsamples = 4\nvalue = [ 4.  0.]", shape="box"] ;
58 -> 60 ;
61 [label="gini = 0.0000\nsamples = 32\nvalue = [ 32.   0.]", shape="box"] ;
57 -> 61 ;
62 [label="X[5] <= 31.2500\ngini = 0.444444444444\nsamples = 3", shape="box"] ;
56 -> 62 ;
63 [label="gini = 0.0000\nsamples = 1\nvalue = [ 0.  1.]", shape="box"] ;
62 -> 63 ;
64 [label="gini = 0.0000\nsamples = 2\nvalue = [ 2.  0.]", shape="box"] ;
62 -> 64 ;
65 [label="X[2] <= 70.0000\ngini = 0.5\nsamples = 2", shape="box"] ;
55 -> 65 ;
66 [label="gini = 0.0000\nsamples = 1\nvalue = [ 1.  0.]", shape="box"] ;
65 -> 66 ;
67 [label="gini = 0.0000\nsamples = 1\nvalue = [ 0.  1.]", shape="box"] ;
65 -> 67 ;
68 [label="X[0] <= 6.0000\ngini = 0.489795918367\nsamples = 7", shape="box"] ;
54 -> 68 ;
69 [label="X[5] <= 31.3000\ngini = 0.375\nsamples = 4", shape="box"] ;
68 -> 69 ;
70 [label="gini = 0.0000\nsamples = 1\nvalue = [ 0.  1.]", shape="box"] ;
69 -> 70 ;
71 [label="gini = 0.0000\nsamples = 3\nvalue = [ 3.  0.]", shape="box"] ;
69 -> 71 ;
72 [label="gini = 0.0000\nsamples = 3\nvalue = [ 0.  3.]", shape="box"] ;
68 -> 72 ;
73 [label="X[6] <= 0.5700\ngini = 0.499591836735\nsamples = 105", shape="box"] ;
51 -> 73 ;
74 [label="X[5] <= 34.6500\ngini = 0.488647025708\nsamples = 73", shape="box"] ;
73 -> 74 ;
75 [label="X[2] <= 89.0000\ngini = 0.496219281664\nsamples = 46", shape="box"] ;
74 -> 75 ;
76 [label="X[7] <= 56.0000\ngini = 0.481859410431\nsamples = 42", shape="box"] ;
75 -> 76 ;
77 [label="X[6] <= 0.4230\ngini = 0.460223537147\nsamples = 39", shape="box"] ;
76 -> 77 ;
78 [label="X[6] <= 0.1665\ngini = 0.391111111111\nsamples = 30", shape="box"] ;
77 -> 78 ;
79 [label="X[7] <= 38.5000\ngini = 0.444444444444\nsamples = 6", shape="box"] ;
78 -> 79 ;
80 [label="gini = 0.0000\nsamples = 3\nvalue = [ 3.  0.]", shape="box"] ;
79 -> 80 ;
81 [label="X[0] <= 5.5000\ngini = 0.444444444444\nsamples = 3", shape="box"] ;
79 -> 81 ;
82 [label="gini = 0.0000\nsamples = 1\nvalue = [ 1.  0.]", shape="box"] ;
81 -> 82 ;
83 [label="gini = 0.0000\nsamples = 2\nvalue = [ 0.  2.]", shape="box"] ;
81 -> 83 ;
84 [label="X[0] <= 8.5000\ngini = 0.277777777778\nsamples = 24", shape="box"] ;
78 -> 84 ;
85 [label="gini = 0.0000\nsamples = 16\nvalue = [  0.  16.]", shape="box"] ;
84 -> 85 ;
86 [label="X[7] <= 38.0000\ngini = 0.5\nsamples = 8", shape="box"] ;
84 -> 86 ;
87 [label="gini = 0.0000\nsamples = 2\nvalue = [ 0.  2.]", shape="box"] ;
86 -> 87 ;
88 [label="X[4] <= 104.5000\ngini = 0.444444444444\nsamples = 6", shape="box"] ;
86 -> 88 ;
89 [label="X[2] <= 67.0000\ngini = 0.32\nsamples = 5", shape="box"] ;
88 -> 89 ;
90 [label="X[0] <= 9.5000\ngini = 0.5\nsamples = 2", shape="box"] ;
89 -> 90 ;
91 [label="gini = 0.0000\nsamples = 1\nvalue = [ 1.  0.]", shape="box"] ;
90 -> 91 ;
92 [label="gini = 0.0000\nsamples = 1\nvalue = [ 0.  1.]", shape="box"] ;
90 -> 92 ;
93 [label="gini = 0.0000\nsamples = 3\nvalue = [ 3.  0.]", shape="box"] ;
89 -> 93 ;
94 [label="gini = 0.0000\nsamples = 1\nvalue = [ 0.  1.]", shape="box"] ;
88 -> 94 ;
95 [label="X[5] <= 33.3000\ngini = 0.444444444444\nsamples = 9", shape="box"] ;
77 -> 95 ;
96 [label="X[3] <= 7.5000\ngini = 0.375\nsamples = 8", shape="box"] ;
95 -> 96 ;
97 [label="X[7] <= 30.5000\ngini = 0.444444444444\nsamples = 3", shape="box"] ;
96 -> 97 ;
98 [label="gini = 0.0000\nsamples = 1\nvalue = [ 1.  0.]", shape="box"] ;
97 -> 98 ;
99 [label="gini = 0.0000\nsamples = 2\nvalue = [ 0.  2.]", shape="box"] ;
97 -> 99 ;
100 [label="gini = 0.0000\nsamples = 5\nvalue = [ 5.  0.]", shape="box"] ;
96 -> 100 ;
101 [label="gini = 0.0000\nsamples = 1\nvalue = [ 0.  1.]", shape="box"] ;
95 -> 101 ;
102 [label="gini = 0.0000\nsamples = 3\nvalue = [ 3.  0.]", shape="box"] ;
76 -> 102 ;
103 [label="gini = 0.0000\nsamples = 4\nvalue = [ 4.  0.]", shape="box"] ;
75 -> 103 ;
104 [label="X[6] <= 0.3245\ngini = 0.345679012346\nsamples = 27", shape="box"] ;
74 -> 104 ;
105 [label="X[6] <= 0.2270\ngini = 0.18836565097\nsamples = 19", shape="box"] ;
104 -> 105 ;
106 [label="gini = 0.0000\nsamples = 10\nvalue = [ 10.   0.]", shape="box"] ;
105 -> 106 ;
107 [label="X[6] <= 0.2620\ngini = 0.345679012346\nsamples = 9", shape="box"] ;
105 -> 107 ;
108 [label="gini = 0.0000\nsamples = 2\nvalue = [ 0.  2.]", shape="box"] ;
107 -> 108 ;
109 [label="gini = 0.0000\nsamples = 7\nvalue = [ 7.  0.]", shape="box"] ;
107 -> 109 ;
110 [label="X[4] <= 159.5000\ngini = 0.5\nsamples = 8", shape="box"] ;
104 -> 110 ;
111 [label="X[6] <= 0.3465\ngini = 0.32\nsamples = 5", shape="box"] ;
110 -> 111 ;
112 [label="gini = 0.0000\nsamples = 1\nvalue = [ 0.  1.]", shape="box"] ;
111 -> 112 ;
113 [label="gini = 0.0000\nsamples = 4\nvalue = [ 4.  0.]", shape="box"] ;
111 -> 113 ;
114 [label="gini = 0.0000\nsamples = 3\nvalue = [ 0.  3.]", shape="box"] ;
110 -> 114 ;
115 [label="X[0] <= 6.5000\ngini = 0.404296875\nsamples = 32", shape="box"] ;
73 -> 115 ;
116 [label="X[4] <= 120.5000\ngini = 0.495\nsamples = 20", shape="box"] ;
115 -> 116 ;
117 [label="X[7] <= 34.5000\ngini = 0.42\nsamples = 10", shape="box"] ;
116 -> 117 ;
118 [label="gini = 0.0000\nsamples = 5\nvalue = [ 5.  0.]", shape="box"] ;
117 -> 118 ;
119 [label="X[5] <= 33.1500\ngini = 0.48\nsamples = 5", shape="box"] ;
117 -> 119 ;
120 [label="gini = 0.0000\nsamples = 3\nvalue = [ 0.  3.]", shape="box"] ;
119 -> 120 ;
121 [label="gini = 0.0000\nsamples = 2\nvalue = [ 2.  0.]", shape="box"] ;
119 -> 121 ;
122 [label="X[4] <= 225.0000\ngini = 0.32\nsamples = 10", shape="box"] ;
116 -> 122 ;
123 [label="X[3] <= 47.5000\ngini = 0.197530864198\nsamples = 9", shape="box"] ;
122 -> 123 ;
124 [label="gini = 0.0000\nsamples = 8\nvalue = [ 0.  8.]", shape="box"] ;
123 -> 124 ;
125 [label="gini = 0.0000\nsamples = 1\nvalue = [ 1.  0.]", shape="box"] ;
123 -> 125 ;
126 [label="gini = 0.0000\nsamples = 1\nvalue = [ 1.  0.]", shape="box"] ;
122 -> 126 ;
127 [label="gini = 0.0000\nsamples = 12\nvalue = [  0.  12.]", shape="box"] ;
115 -> 127 ;
128 [label="X[5] <= 29.9500\ngini = 0.477347139562\nsamples = 249", shape="box"] ;
0 -> 128 ;
129 [label="X[1] <= 151.5000\ngini = 0.418801514814\nsamples = 67", shape="box"] ;
128 -> 129 ;
130 [label="X[2] <= 23.0000\ngini = 0.292345679012\nsamples = 45", shape="box"] ;
129 -> 130 ;
131 [label="gini = 0.0000\nsamples = 1\nvalue = [ 0.  1.]", shape="box"] ;
130 -> 131 ;
132 [label="X[3] <= 34.5000\ngini = 0.267561983471\nsamples = 44", shape="box"] ;
130 -> 132 ;
133 [label="X[0] <= 1.5000\ngini = 0.21875\nsamples = 40", shape="box"] ;
132 -> 133 ;
134 [label="gini = 0.0000\nsamples = 12\nvalue = [ 12.   0.]", shape="box"] ;
133 -> 134 ;
135 [label="X[2] <= 73.0000\ngini = 0.293367346939\nsamples = 28", shape="box"] ;
133 -> 135 ;
136 [label="X[4] <= 121.5000\ngini = 0.48\nsamples = 10", shape="box"] ;
135 -> 136 ;
137 [label="X[0] <= 5.0000\ngini = 0.444444444444\nsamples = 6", shape="box"] ;
136 -> 137 ;
138 [label="gini = 0.0000\nsamples = 4\nvalue = [ 0.  4.]", shape="box"] ;
137 -> 138 ;
139 [label="gini = 0.0000\nsamples = 2\nvalue = [ 2.  0.]", shape="box"] ;
137 -> 139 ;
140 [label="gini = 0.0000\nsamples = 4\nvalue = [ 4.  0.]", shape="box"] ;
136 -> 140 ;
141 [label="X[6] <= 0.1820\ngini = 0.104938271605\nsamples = 18", shape="box"] ;
135 -> 141 ;
142 [label="X[7] <= 39.5000\ngini = 0.5\nsamples = 2", shape="box"] ;
141 -> 142 ;
143 [label="gini = 0.0000\nsamples = 1\nvalue = [ 1.  0.]", shape="box"] ;
142 -> 143 ;
144 [label="gini = 0.0000\nsamples = 1\nvalue = [ 0.  1.]", shape="box"] ;
142 -> 144 ;
145 [label="gini = 0.0000\nsamples = 16\nvalue = [ 16.   0.]", shape="box"] ;
141 -> 145 ;
146 [label="X[5] <= 28.4500\ngini = 0.5\nsamples = 4", shape="box"] ;
132 -> 146 ;
147 [label="gini = 0.0000\nsamples = 2\nvalue = [ 0.  2.]", shape="box"] ;
146 -> 147 ;
148 [label="gini = 0.0000\nsamples = 2\nvalue = [ 2.  0.]", shape="box"] ;
146 -> 148 ;
149 [label="X[7] <= 61.0000\ngini = 0.495867768595\nsamples = 22", shape="box"] ;
129 -> 149 ;
150 [label="X[7] <= 25.5000\ngini = 0.444444444444\nsamples = 18", shape="box"] ;
149 -> 150 ;
151 [label="gini = 0.0000\nsamples = 2\nvalue = [ 2.  0.]", shape="box"] ;
150 -> 151 ;
152 [label="X[5] <= 27.1000\ngini = 0.375\nsamples = 16", shape="box"] ;
150 -> 152 ;
153 [label="gini = 0.0000\nsamples = 10\nvalue = [  0.  10.]", shape="box"] ;
152 -> 153 ;
154 [label="X[7] <= 36.5000\ngini = 0.444444444444\nsamples = 6", shape="box"] ;
152 -> 154 ;
155 [label="gini = 0.0000\nsamples = 2\nvalue = [ 0.  2.]", shape="box"] ;
154 -> 155 ;
156 [label="gini = 0.0000\nsamples = 4\nvalue = [ 4.  0.]", shape="box"] ;
154 -> 156 ;
157 [label="gini = 0.0000\nsamples = 4\nvalue = [ 4.  0.]", shape="box"] ;
149 -> 157 ;
158 [label="X[1] <= 157.5000\ngini = 0.403393309987\nsamples = 182", shape="box"] ;
128 -> 158 ;
159 [label="X[2] <= 61.0000\ngini = 0.478384472111\nsamples = 101", shape="box"] ;
158 -> 159 ;
160 [label="gini = 0.0000\nsamples = 14\nvalue = [  0.  14.]", shape="box"] ;
159 -> 160 ;
161 [label="X[7] <= 30.5000\ngini = 0.496763112697\nsamples = 87", shape="box"] ;
159 -> 161 ;
162 [label="X[4] <= 260.0000\ngini = 0.424382716049\nsamples = 36", shape="box"] ;
161 -> 162 ;
163 [label="X[6] <= 0.3110\ngini = 0.482853223594\nsamples = 27", shape="box"] ;
162 -> 163 ;
164 [label="X[3] <= 39.0000\ngini = 0.21875\nsamples = 8", shape="box"] ;
163 -> 164 ;
165 [label="gini = 0.0000\nsamples = 6\nvalue = [ 6.  0.]", shape="box"] ;
164 -> 165 ;
166 [label="X[7] <= 24.0000\ngini = 0.5\nsamples = 2", shape="box"] ;
164 -> 166 ;
167 [label="gini = 0.0000\nsamples = 1\nvalue = [ 0.  1.]", shape="box"] ;
166 -> 167 ;
168 [label="gini = 0.0000\nsamples = 1\nvalue = [ 1.  0.]", shape="box"] ;
166 -> 168 ;
169 [label="X[6] <= 0.3730\ngini = 0.498614958449\nsamples = 19", shape="box"] ;
163 -> 169 ;
170 [label="X[7] <= 28.5000\ngini = 0.277777777778\nsamples = 6", shape="box"] ;
169 -> 170 ;
171 [label="gini = 0.0000\nsamples = 5\nvalue = [ 0.  5.]", shape="box"] ;
170 -> 171 ;
172 [label="gini = 0.0000\nsamples = 1\nvalue = [ 1.  0.]", shape="box"] ;
170 -> 172 ;
173 [label="X[3] <= 28.5000\ngini = 0.473372781065\nsamples = 13", shape="box"] ;
169 -> 173 ;
174 [label="X[2] <= 75.0000\ngini = 0.408163265306\nsamples = 7", shape="box"] ;
173 -> 174 ;
175 [label="gini = 0.0000\nsamples = 4\nvalue = [ 0.  4.]", shape="box"] ;
174 -> 175 ;
176 [label="X[0] <= 2.0000\ngini = 0.444444444444\nsamples = 3", shape="box"] ;
174 -> 176 ;
177 [label="gini = 0.0000\nsamples = 2\nvalue = [ 2.  0.]", shape="box"] ;
176 -> 177 ;
178 [label="gini = 0.0000\nsamples = 1\nvalue = [ 0.  1.]", shape="box"] ;
176 -> 178 ;
179 [label="gini = 0.0000\nsamples = 6\nvalue = [ 6.  0.]", shape="box"] ;
173 -> 179 ;
180 [label="gini = 0.0000\nsamples = 9\nvalue = [ 9.  0.]", shape="box"] ;
162 -> 180 ;
181 [label="X[6] <= 0.2225\ngini = 0.415224913495\nsamples = 51", shape="box"] ;
161 -> 181 ;
182 [label="X[7] <= 44.0000\ngini = 0.408163265306\nsamples = 7", shape="box"] ;
181 -> 182 ;
183 [label="gini = 0.0000\nsamples = 2\nvalue = [ 0.  2.]", shape="box"] ;
182 -> 183 ;
184 [label="gini = 0.0000\nsamples = 5\nvalue = [ 5.  0.]", shape="box"] ;
182 -> 184 ;
185 [label="X[7] <= 44.5000\ngini = 0.351239669421\nsamples = 44", shape="box"] ;
181 -> 185 ;
186 [label="X[7] <= 33.5000\ngini = 0.459183673469\nsamples = 28", shape="box"] ;
185 -> 186 ;
187 [label="gini = 0.0000\nsamples = 6\nvalue = [ 0.  6.]", shape="box"] ;
186 -> 187 ;
188 [label="X[5] <= 41.1500\ngini = 0.495867768595\nsamples = 22", shape="box"] ;
186 -> 188 ;
189 [label="X[0] <= 9.5000\ngini = 0.493827160494\nsamples = 18", shape="box"] ;
188 -> 189 ;
190 [label="X[4] <= 191.5000\ngini = 0.497777777778\nsamples = 15", shape="box"] ;
189 -> 190 ;
191 [label="X[5] <= 32.6500\ngini = 0.444444444444\nsamples = 12", shape="box"] ;
190 -> 191 ;
192 [label="gini = 0.0000\nsamples = 2\nvalue = [ 2.  0.]", shape="box"] ;
191 -> 192 ;
193 [label="X[5] <= 39.8000\ngini = 0.32\nsamples = 10", shape="box"] ;
191 -> 193 ;
194 [label="gini = 0.0000\nsamples = 8\nvalue = [ 0.  8.]", shape="box"] ;
193 -> 194 ;
195 [label="gini = 0.0000\nsamples = 2\nvalue = [ 2.  0.]", shape="box"] ;
193 -> 195 ;
196 [label="gini = 0.0000\nsamples = 3\nvalue = [ 3.  0.]", shape="box"] ;
190 -> 196 ;
197 [label="gini = 0.0000\nsamples = 3\nvalue = [ 3.  0.]", shape="box"] ;
189 -> 197 ;
198 [label="gini = 0.0000\nsamples = 4\nvalue = [ 0.  4.]", shape="box"] ;
188 -> 198 ;
199 [label="gini = 0.0000\nsamples = 16\nvalue = [  0.  16.]", shape="box"] ;
185 -> 199 ;
200 [label="X[4] <= 629.5000\ngini = 0.234720317025\nsamples = 81", shape="box"] ;
158 -> 200 ;
201 [label="X[7] <= 44.0000\ngini = 0.204142011834\nsamples = 78", shape="box"] ;
200 -> 201 ;
202 [label="X[6] <= 0.3065\ngini = 0.128418549346\nsamples = 58", shape="box"] ;
201 -> 202 ;
203 [label="X[7] <= 37.5000\ngini = 0.375\nsamples = 16", shape="box"] ;
202 -> 203 ;
204 [label="X[7] <= 25.5000\ngini = 0.493827160494\nsamples = 9", shape="box"] ;
203 -> 204 ;
205 [label="gini = 0.0000\nsamples = 3\nvalue = [ 0.  3.]", shape="box"] ;
204 -> 205 ;
206 [label="X[4] <= 266.0000\ngini = 0.444444444444\nsamples = 6", shape="box"] ;
204 -> 206 ;
207 [label="X[1] <= 164.0000\ngini = 0.32\nsamples = 5", shape="box"] ;
206 -> 207 ;
208 [label="gini = 0.0000\nsamples = 1\nvalue = [ 0.  1.]", shape="box"] ;
207 -> 208 ;
209 [label="gini = 0.0000\nsamples = 4\nvalue = [ 4.  0.]", shape="box"] ;
207 -> 209 ;
210 [label="gini = 0.0000\nsamples = 1\nvalue = [ 0.  1.]", shape="box"] ;
206 -> 210 ;
211 [label="gini = 0.0000\nsamples = 7\nvalue = [ 0.  7.]", shape="box"] ;
203 -> 211 ;
212 [label="gini = 0.0000\nsamples = 42\nvalue = [  0.  42.]", shape="box"] ;
202 -> 212 ;
213 [label="X[0] <= 1.5000\ngini = 0.375\nsamples = 20", shape="box"] ;
201 -> 213 ;
214 [label="gini = 0.0000\nsamples = 2\nvalue = [ 2.  0.]", shape="box"] ;
213 -> 214 ;
215 [label="X[7] <= 46.0000\ngini = 0.277777777778\nsamples = 18", shape="box"] ;
213 -> 215 ;
216 [label="gini = 0.0000\nsamples = 1\nvalue = [ 1.  0.]", shape="box"] ;
215 -> 216 ;
217 [label="X[2] <= 69.0000\ngini = 0.207612456747\nsamples = 17", shape="box"] ;
215 -> 217 ;
218 [label="X[7] <= 54.5000\ngini = 0.5\nsamples = 2", shape="box"] ;
217 -> 218 ;
219 [label="gini = 0.0000\nsamples = 1\nvalue = [ 1.  0.]", shape="box"] ;
218 -> 219 ;
220 [label="gini = 0.0000\nsamples = 1\nvalue = [ 0.  1.]", shape="box"] ;
218 -> 220 ;
221 [label="X[7] <= 59.0000\ngini = 0.124444444444\nsamples = 15", shape="box"] ;
217 -> 221 ;
222 [label="gini = 0.0000\nsamples = 12\nvalue = [  0.  12.]", shape="box"] ;
221 -> 222 ;
223 [label="X[7] <= 61.0000\ngini = 0.444444444444\nsamples = 3", shape="box"] ;
221 -> 223 ;
224 [label="gini = 0.0000\nsamples = 1\nvalue = [ 1.  0.]", shape="box"] ;
223 -> 224 ;
225 [label="gini = 0.0000\nsamples = 2\nvalue = [ 0.  2.]", shape="box"] ;
223 -> 225 ;
226 [label="X[7] <= 45.0000\ngini = 0.444444444444\nsamples = 3", shape="box"] ;
200 -> 226 ;
227 [label="gini = 0.0000\nsamples = 2\nvalue = [ 2.  0.]", shape="box"] ;
226 -> 227 ;
228 [label="gini = 0.0000\nsamples = 1\nvalue = [ 0.  1.]", shape="box"] ;
226 -> 228 ;
}